#pragma once
#include <cstdarg>
namespace Eloquent {
    namespace ML {
        namespace Port {
            class Classifier {
                public:
                    /**
                    * Predict class for features vector
                    */
                    int predict(float *x) {
                        uint8_t votes[2] = { 0 };
                        // tree #1
                        if (x[215] <= -46.56949996948242) {
                            if (x[500] <= 0.8479999899864197) {
                                votes[0] += 1;
                            }

                            else {
                                votes[1] += 1;
                            }
                        }

                        else {
                            if (x[443] <= -29.388500213623047) {
                                votes[0] += 1;
                            }

                            else {
                                votes[1] += 1;
                            }
                        }

                        // tree #2
                        if (x[3] <= 137.36000061035156) {
                            if (x[668] <= 0.7445000112056732) {
                                votes[0] += 1;
                            }

                            else {
                                votes[1] += 1;
                            }
                        }

                        else {
                            if (x[337] <= 0.9519999921321869) {
                                votes[1] += 1;
                            }

                            else {
                                votes[0] += 1;
                            }
                        }

                        // tree #3
                        if (x[101] <= -67.81000137329102) {
                            if (x[422] <= 0.6544999778270721) {
                                votes[0] += 1;
                            }

                            else {
                                votes[1] += 1;
                            }
                        }

                        else {
                            if (x[365] <= -28.106499671936035) {
                                votes[0] += 1;
                            }

                            else {
                                votes[1] += 1;
                            }
                        }

                        // tree #4
                        if (x[131] <= -48.15700149536133) {
                            if (x[458] <= 0.35899999737739563) {
                                votes[0] += 1;
                            }

                            else {
                                votes[0] += 1;
                            }
                        }

                        else {
                            if (x[347] <= -24.8410005569458) {
                                votes[0] += 1;
                            }

                            else {
                                votes[1] += 1;
                            }
                        }

                        // tree #5
                        if (x[471] <= 9.063499927520752) {
                            if (x[437] <= -25.69600009918213) {
                                votes[0] += 1;
                            }

                            else {
                                votes[1] += 1;
                            }
                        }

                        else {
                            if (x[266] <= 0.7405000030994415) {
                                votes[0] += 1;
                            }

                            else {
                                votes[1] += 1;
                            }
                        }

                        // tree #6
                        if (x[561] <= 9.552000045776367) {
                            if (x[497] <= -30.090499877929688) {
                                votes[0] += 1;
                            }

                            else {
                                votes[1] += 1;
                            }
                        }

                        else {
                            if (x[410] <= 0.7175000011920929) {
                                votes[0] += 1;
                            }

                            else {
                                votes[1] += 1;
                            }
                        }

                        // tree #7
                        if (x[375] <= 6.95799994468689) {
                            if (x[381] <= -32.684499740600586) {
                                votes[0] += 1;
                            }

                            else {
                                votes[1] += 1;
                            }
                        }

                        else {
                            if (x[338] <= 0.7634999752044678) {
                                votes[0] += 1;
                            }

                            else {
                                votes[1] += 1;
                            }
                        }

                        // tree #8
                        if (x[471] <= 8.02649998664856) {
                            if (x[359] <= -32.135000228881836) {
                                votes[0] += 1;
                            }

                            else {
                                votes[1] += 1;
                            }
                        }

                        else {
                            if (x[194] <= 0.667000025510788) {
                                votes[0] += 1;
                            }

                            else {
                                votes[1] += 1;
                            }
                        }

                        // tree #9
                        if (x[497] <= -29.510499954223633) {
                            if (x[416] <= 0.8409999907016754) {
                                votes[0] += 1;
                            }

                            else {
                                votes[0] += 1;
                            }
                        }

                        else {
                            if (x[419] <= 83.58749771118164) {
                                votes[1] += 1;
                            }

                            else {
                                votes[0] += 1;
                            }
                        }

                        // tree #10
                        if (x[239] <= -35.492000579833984) {
                            if (x[404] <= 0.7089999914169312) {
                                votes[0] += 1;
                            }

                            else {
                                votes[1] += 1;
                            }
                        }

                        else {
                            if (x[287] <= 98.9379997253418) {
                                votes[1] += 1;
                            }

                            else {
                                votes[0] += 1;
                            }
                        }

                        // tree #11
                        if (x[359] <= -35.21750068664551) {
                            if (x[290] <= 1.037500023841858) {
                                votes[0] += 1;
                            }

                            else {
                                votes[0] += 1;
                            }
                        }

                        else {
                            if (x[417] <= 7.415500164031982) {
                                votes[1] += 1;
                            }

                            else {
                                votes[0] += 1;
                            }
                        }

                        // tree #12
                        if (x[155] <= -45.71500015258789) {
                            if (x[149] <= -0.30500030517578125) {
                                votes[0] += 1;
                            }

                            else {
                                votes[1] += 1;
                            }
                        }

                        else {
                            if (x[413] <= -24.078499794006348) {
                                votes[0] += 1;
                            }

                            else {
                                votes[1] += 1;
                            }
                        }

                        // tree #13
                        if (x[251] <= -37.50600051879883) {
                            if (x[386] <= 0.7974999845027924) {
                                votes[0] += 1;
                            }

                            else {
                                votes[1] += 1;
                            }
                        }

                        else {
                            if (x[275] <= 86.24250030517578) {
                                votes[1] += 1;
                            }

                            else {
                                votes[0] += 1;
                            }
                        }

                        // tree #14
                        if (x[347] <= -26.18400001525879) {
                            if (x[12] <= -1.7195000052452087) {
                                votes[0] += 1;
                            }

                            else {
                                votes[0] += 1;
                            }
                        }

                        else {
                            if (x[299] <= 98.63249969482422) {
                                votes[1] += 1;
                            }

                            else {
                                votes[0] += 1;
                            }
                        }

                        // tree #15
                        if (x[341] <= -24.749500274658203) {
                            if (x[290] <= 0.7819999754428864) {
                                votes[0] += 1;
                            }

                            else {
                                votes[0] += 1;
                            }
                        }

                        else {
                            if (x[83] <= -84.47249984741211) {
                                votes[0] += 1;
                            }

                            else {
                                votes[1] += 1;
                            }
                        }

                        // tree #16
                        if (x[413] <= -24.017499923706055) {
                            if (x[638] <= -0.6910000145435333) {
                                votes[1] += 1;
                            }

                            else {
                                votes[0] += 1;
                            }
                        }

                        else {
                            if (x[423] <= 8.42300033569336) {
                                votes[1] += 1;
                            }

                            else {
                                votes[0] += 1;
                            }
                        }

                        // tree #17
                        if (x[351] <= 17.45599937438965) {
                            if (x[107] <= 101.62350082397461) {
                                votes[1] += 1;
                            }

                            else {
                                votes[0] += 1;
                            }
                        }

                        else {
                            if (x[146] <= 0.6175000071525574) {
                                votes[0] += 1;
                            }

                            else {
                                votes[0] += 1;
                            }
                        }

                        // tree #18
                        if (x[387] <= 10.772500038146973) {
                            if (x[473] <= -39.33699989318848) {
                                votes[0] += 1;
                            }

                            else {
                                votes[1] += 1;
                            }
                        }

                        else {
                            if (x[140] <= 0.6694999933242798) {
                                votes[0] += 1;
                            }

                            else {
                                votes[1] += 1;
                            }
                        }

                        // tree #19
                        if (x[375] <= 7.35450005531311) {
                            if (x[431] <= -22.308500289916992) {
                                votes[0] += 1;
                            }

                            else {
                                votes[1] += 1;
                            }
                        }

                        else {
                            if (x[182] <= 0.6130000054836273) {
                                votes[0] += 1;
                            }

                            else {
                                votes[1] += 1;
                            }
                        }

                        // tree #20
                        if (x[287] <= -42.93850135803223) {
                            if (x[375] <= -239.3489990234375) {
                                votes[0] += 1;
                            }

                            else {
                                votes[0] += 1;
                            }
                        }

                        else {
                            if (x[429] <= 8.056999921798706) {
                                votes[1] += 1;
                            }

                            else {
                                votes[0] += 1;
                            }
                        }

                        // tree #21
                        if (x[413] <= -31.463500022888184) {
                            if (x[482] <= -0.8184999823570251) {
                                votes[1] += 1;
                            }

                            else {
                                votes[0] += 1;
                            }
                        }

                        else {
                            if (x[447] <= 6.195499897003174) {
                                votes[1] += 1;
                            }

                            else {
                                votes[0] += 1;
                            }
                        }

                        // tree #22
                        if (x[387] <= 10.497999668121338) {
                            if (x[401] <= -26.214499473571777) {
                                votes[0] += 1;
                            }

                            else {
                                votes[1] += 1;
                            }
                        }

                        else {
                            if (x[182] <= 0.5909999907016754) {
                                votes[0] += 1;
                            }

                            else {
                                votes[1] += 1;
                            }
                        }

                        // tree #23
                        if (x[363] <= 7.659499883651733) {
                            if (x[299] <= -32.37899971008301) {
                                votes[0] += 1;
                            }

                            else {
                                votes[1] += 1;
                            }
                        }

                        else {
                            if (x[368] <= 0.715499997138977) {
                                votes[0] += 1;
                            }

                            else {
                                votes[1] += 1;
                            }
                        }

                        // tree #24
                        if (x[263] <= -39.39850044250488) {
                            if (x[266] <= 2.492500066757202) {
                                votes[0] += 1;
                            }

                            else {
                                votes[1] += 1;
                            }
                        }

                        else {
                            if (x[435] <= 9.735499858856201) {
                                votes[1] += 1;
                            }

                            else {
                                votes[0] += 1;
                            }
                        }

                        // tree #25
                        if (x[233] <= -51.78849983215332) {
                            if (x[422] <= 0.9214999973773956) {
                                votes[0] += 1;
                            }

                            else {
                                votes[1] += 1;
                            }
                        }

                        else {
                            if (x[209] <= 73.11999893188477) {
                                votes[1] += 1;
                            }

                            else {
                                votes[0] += 1;
                            }
                        }

                        // tree #26
                        if (x[137] <= -31.585500717163086) {
                            if (x[362] <= 0.28949999809265137) {
                                votes[0] += 1;
                            }

                            else {
                                votes[0] += 1;
                            }
                        }

                        else {
                            if (x[449] <= -20.8435001373291) {
                                votes[0] += 1;
                            }

                            else {
                                votes[1] += 1;
                            }
                        }

                        // tree #27
                        if (x[429] <= 8.056999921798706) {
                            if (x[191] <= 81.87849807739258) {
                                votes[1] += 1;
                            }

                            else {
                                votes[0] += 1;
                            }
                        }

                        else {
                            if (x[656] <= 0.87950000166893) {
                                votes[0] += 1;
                            }

                            else {
                                votes[1] += 1;
                            }
                        }

                        // tree #28
                        if (x[435] <= 12.878000259399414) {
                            if (x[347] <= -34.91200065612793) {
                                votes[0] += 1;
                            }

                            else {
                                votes[1] += 1;
                            }
                        }

                        else {
                            if (x[596] <= 0.8560000061988831) {
                                votes[0] += 1;
                            }

                            else {
                                votes[1] += 1;
                            }
                        }

                        // tree #29
                        if (x[329] <= -26.45900058746338) {
                            if (x[686] <= 0.8034999966621399) {
                                votes[0] += 1;
                            }

                            else {
                                votes[0] += 1;
                            }
                        }

                        else {
                            if (x[429] <= 10.894500255584717) {
                                votes[1] += 1;
                            }

                            else {
                                votes[0] += 1;
                            }
                        }

                        // tree #30
                        if (x[245] <= -35.61400032043457) {
                            if (x[2] <= 2.8644999861717224) {
                                votes[0] += 1;
                            }

                            else {
                                votes[1] += 1;
                            }
                        }

                        else {
                            if (x[431] <= -26.09249973297119) {
                                votes[0] += 1;
                            }

                            else {
                                votes[1] += 1;
                            }
                        }

                        // tree #31
                        if (x[347] <= -25.298999786376953) {
                            if (x[3] <= 255.2490005493164) {
                                votes[0] += 1;
                            }

                            else {
                                votes[1] += 1;
                            }
                        }

                        else {
                            if (x[321] <= 17.94399929046631) {
                                votes[1] += 1;
                            }

                            else {
                                votes[0] += 1;
                            }
                        }

                        // tree #32
                        if (x[363] <= 10.986000061035156) {
                            if (x[275] <= -37.32299995422363) {
                                votes[0] += 1;
                            }

                            else {
                                votes[1] += 1;
                            }
                        }

                        else {
                            if (x[302] <= 0.7494999766349792) {
                                votes[0] += 1;
                            }

                            else {
                                votes[1] += 1;
                            }
                        }

                        // tree #33
                        if (x[335] <= -32.4399995803833) {
                            if (x[20] <= 2.8945000171661377) {
                                votes[0] += 1;
                            }

                            else {
                                votes[1] += 1;
                            }
                        }

                        else {
                            if (x[411] <= 9.644000053405762) {
                                votes[1] += 1;
                            }

                            else {
                                votes[0] += 1;
                            }
                        }

                        // tree #34
                        if (x[305] <= -31.677000045776367) {
                            if (x[686] <= 0.8034999966621399) {
                                votes[0] += 1;
                            }

                            else {
                                votes[0] += 1;
                            }
                        }

                        else {
                            if (x[417] <= 8.789000034332275) {
                                votes[1] += 1;
                            }

                            else {
                                votes[0] += 1;
                            }
                        }

                        // tree #35
                        if (x[419] <= -28.869500160217285) {
                            if (x[151] <= 2.0179999470710754) {
                                votes[0] += 1;
                            }

                            else {
                                votes[1] += 1;
                            }
                        }

                        else {
                            if (x[185] <= -48.095998764038086) {
                                votes[0] += 1;
                            }

                            else {
                                votes[1] += 1;
                            }
                        }

                        // tree #36
                        if (x[221] <= -48.40099906921387) {
                            if (x[3] <= 403.4120178222656) {
                                votes[0] += 1;
                            }

                            else {
                                votes[1] += 1;
                            }
                        }

                        else {
                            if (x[227] <= 70.58699798583984) {
                                votes[1] += 1;
                            }

                            else {
                                votes[0] += 1;
                            }
                        }

                        // tree #37
                        if (x[329] <= -35.888999938964844) {
                            if (x[9] <= 347.8395004272461) {
                                votes[0] += 1;
                            }

                            else {
                                votes[1] += 1;
                            }
                        }

                        else {
                            if (x[281] <= 82.48899841308594) {
                                votes[1] += 1;
                            }

                            else {
                                votes[0] += 1;
                            }
                        }

                        // tree #38
                        if (x[357] <= 12.4205002784729) {
                            if (x[287] <= -39.00150108337402) {
                                votes[0] += 1;
                            }

                            else {
                                votes[1] += 1;
                            }
                        }

                        else {
                            if (x[374] <= 0.804500013589859) {
                                votes[0] += 1;
                            }

                            else {
                                votes[1] += 1;
                            }
                        }

                        // tree #39
                        if (x[417] <= 7.415500164031982) {
                            if (x[419] <= -29.754499435424805) {
                                votes[0] += 1;
                            }

                            else {
                                votes[1] += 1;
                            }
                        }

                        else {
                            if (x[356] <= 0.7739999890327454) {
                                votes[0] += 1;
                            }

                            else {
                                votes[1] += 1;
                            }
                        }

                        // tree #40
                        if (x[423] <= 8.66700029373169) {
                            if (x[281] <= -39.947500228881836) {
                                votes[0] += 1;
                            }

                            else {
                                votes[1] += 1;
                            }
                        }

                        else {
                            if (x[278] <= 0.5995000004768372) {
                                votes[0] += 1;
                            }

                            else {
                                votes[1] += 1;
                            }
                        }

                        // tree #41
                        if (x[455] <= -32.89799880981445) {
                            if (x[476] <= -0.8125) {
                                votes[0] += 1;
                            }

                            else {
                                votes[0] += 1;
                            }
                        }

                        else {
                            if (x[441] <= 8.727999687194824) {
                                votes[1] += 1;
                            }

                            else {
                                votes[0] += 1;
                            }
                        }

                        // tree #42
                        if (x[401] <= -20.660499572753906) {
                            if (x[109] <= 2.6890000104904175) {
                                votes[0] += 1;
                            }

                            else {
                                votes[1] += 1;
                            }
                        }

                        else {
                            if (x[449] <= 62.10350036621094) {
                                votes[1] += 1;
                            }

                            else {
                                votes[0] += 1;
                            }
                        }

                        // tree #43
                        if (x[317] <= -21.850500106811523) {
                            if (x[0] <= 1.7824999690055847) {
                                votes[0] += 1;
                            }

                            else {
                                votes[1] += 1;
                            }
                        }

                        else {
                            if (x[83] <= -64.39200210571289) {
                                votes[0] += 1;
                            }

                            else {
                                votes[1] += 1;
                            }
                        }

                        // tree #44
                        if (x[411] <= 11.077499866485596) {
                            if (x[305] <= -33.93549919128418) {
                                votes[0] += 1;
                            }

                            else {
                                votes[1] += 1;
                            }
                        }

                        else {
                            if (x[416] <= 0.7800000011920929) {
                                votes[0] += 1;
                            }

                            else {
                                votes[1] += 1;
                            }
                        }

                        // tree #45
                        if (x[423] <= 8.42300033569336) {
                            if (x[216] <= -0.15799999982118607) {
                                votes[0] += 1;
                            }

                            else {
                                votes[1] += 1;
                            }
                        }

                        else {
                            if (x[392] <= 0.7854999899864197) {
                                votes[0] += 1;
                            }

                            else {
                                votes[1] += 1;
                            }
                        }

                        // tree #46
                        if (x[383] <= -28.6560001373291) {
                            if (x[422] <= -0.8165000081062317) {
                                votes[1] += 1;
                            }

                            else {
                                votes[0] += 1;
                            }
                        }

                        else {
                            if (x[377] <= 78.30799865722656) {
                                votes[1] += 1;
                            }

                            else {
                                votes[0] += 1;
                            }
                        }

                        // tree #47
                        if (x[471] <= 10.253999710083008) {
                            if (x[239] <= 92.16299819946289) {
                                votes[1] += 1;
                            }

                            else {
                                votes[0] += 1;
                            }
                        }

                        else {
                            if (x[476] <= 0.8029999732971191) {
                                votes[0] += 1;
                            }

                            else {
                                votes[1] += 1;
                            }
                        }

                        // tree #48
                        if (x[353] <= -32.95899963378906) {
                            votes[0] += 1;
                        }

                        else {
                            if (x[347] <= 100.21949768066406) {
                                votes[1] += 1;
                            }

                            else {
                                votes[0] += 1;
                            }
                        }

                        // tree #49
                        if (x[347] <= -24.38350009918213) {
                            if (x[584] <= -0.8355000019073486) {
                                votes[0] += 1;
                            }

                            else {
                                votes[0] += 1;
                            }
                        }

                        else {
                            if (x[345] <= 11.566500186920166) {
                                votes[1] += 1;
                            }

                            else {
                                votes[0] += 1;
                            }
                        }

                        // tree #50
                        if (x[453] <= 11.718999862670898) {
                            if (x[425] <= -29.90700054168701) {
                                votes[0] += 1;
                            }

                            else {
                                votes[1] += 1;
                            }
                        }

                        else {
                            if (x[464] <= 0.7060000002384186) {
                                votes[0] += 1;
                            }

                            else {
                                votes[0] += 1;
                            }
                        }

                        // tree #51
                        if (x[443] <= -20.416500091552734) {
                            if (x[320] <= 0.8139999806880951) {
                                votes[0] += 1;
                            }

                            else {
                                votes[1] += 1;
                            }
                        }

                        else {
                            if (x[335] <= -37.62849998474121) {
                                votes[0] += 1;
                            }

                            else {
                                votes[1] += 1;
                            }
                        }

                        // tree #52
                        if (x[347] <= -26.305999755859375) {
                            if (x[57] <= -210.6320037841797) {
                                votes[0] += 1;
                            }

                            else {
                                votes[0] += 1;
                            }
                        }

                        else {
                            if (x[365] <= 87.79899978637695) {
                                votes[1] += 1;
                            }

                            else {
                                votes[0] += 1;
                            }
                        }

                        // tree #53
                        if (x[387] <= 8.789000034332275) {
                            if (x[401] <= -26.977999687194824) {
                                votes[0] += 1;
                            }

                            else {
                                votes[1] += 1;
                            }
                        }

                        else {
                            if (x[704] <= 0.7580000162124634) {
                                votes[0] += 1;
                            }

                            else {
                                votes[1] += 1;
                            }
                        }

                        // tree #54
                        if (x[477] <= 9.460000038146973) {
                            if (x[353] <= -32.65399932861328) {
                                votes[0] += 1;
                            }

                            else {
                                votes[1] += 1;
                            }
                        }

                        else {
                            if (x[374] <= 0.7700000107288361) {
                                votes[0] += 1;
                            }

                            else {
                                votes[1] += 1;
                            }
                        }

                        // tree #55
                        if (x[369] <= 12.359500408172607) {
                            if (x[329] <= -35.888999938964844) {
                                votes[0] += 1;
                            }

                            else {
                                votes[1] += 1;
                            }
                        }

                        else {
                            if (x[326] <= 0.7479999959468842) {
                                votes[0] += 1;
                            }

                            else {
                                votes[1] += 1;
                            }
                        }

                        // tree #56
                        if (x[131] <= -48.34000015258789) {
                            if (x[656] <= 0.5940000116825104) {
                                votes[0] += 1;
                            }

                            else {
                                votes[0] += 1;
                            }
                        }

                        else {
                            if (x[209] <= 81.1155014038086) {
                                votes[1] += 1;
                            }

                            else {
                                votes[0] += 1;
                            }
                        }

                        // tree #57
                        if (x[377] <= -28.320000648498535) {
                            if (x[109] <= 2.6890000104904175) {
                                votes[0] += 1;
                            }

                            else {
                                votes[1] += 1;
                            }
                        }

                        else {
                            if (x[365] <= 66.89450073242188) {
                                votes[1] += 1;
                            }

                            else {
                                votes[0] += 1;
                            }
                        }

                        // tree #58
                        if (x[185] <= 83.0994987487793) {
                            if (x[197] <= -37.048500061035156) {
                                votes[0] += 1;
                            }

                            else {
                                votes[1] += 1;
                            }
                        }

                        else {
                            if (x[138] <= 1.6930000185966492) {
                                votes[0] += 1;
                            }

                            else {
                                votes[1] += 1;
                            }
                        }

                        // tree #59
                        if (x[459] <= 9.704999923706055) {
                            if (x[383] <= -31.311500549316406) {
                                votes[0] += 1;
                            }

                            else {
                                votes[1] += 1;
                            }
                        }

                        else {
                            if (x[332] <= 0.6930000185966492) {
                                votes[0] += 1;
                            }

                            else {
                                votes[1] += 1;
                            }
                        }

                        // tree #60
                        if (x[407] <= -26.275500297546387) {
                            if (x[431] <= -26.061999320983887) {
                                votes[0] += 1;
                            }

                            else {
                                votes[0] += 1;
                            }
                        }

                        else {
                            if (x[281] <= -46.691999435424805) {
                                votes[0] += 1;
                            }

                            else {
                                votes[1] += 1;
                            }
                        }

                        // tree #61
                        if (x[419] <= -28.839499473571777) {
                            if (x[512] <= -0.8174999952316284) {
                                votes[1] += 1;
                            }

                            else {
                                votes[0] += 1;
                            }
                        }

                        else {
                            if (x[425] <= 80.84099960327148) {
                                votes[1] += 1;
                            }

                            else {
                                votes[0] += 1;
                            }
                        }

                        // tree #62
                        if (x[305] <= -31.677000045776367) {
                            if (x[9] <= 209.5945053100586) {
                                votes[0] += 1;
                            }

                            else {
                                votes[1] += 1;
                            }
                        }

                        else {
                            if (x[263] <= 85.60200119018555) {
                                votes[1] += 1;
                            }

                            else {
                                votes[0] += 1;
                            }
                        }

                        // tree #63
                        if (x[371] <= -31.58549976348877) {
                            if (x[446] <= -0.6854999959468842) {
                                votes[1] += 1;
                            }

                            else {
                                votes[0] += 1;
                            }
                        }

                        else {
                            if (x[479] <= 97.87000274658203) {
                                votes[1] += 1;
                            }

                            else {
                                votes[0] += 1;
                            }
                        }

                        // tree #64
                        if (x[483] <= 13.092000007629395) {
                            if (x[305] <= -36.743499755859375) {
                                votes[0] += 1;
                            }

                            else {
                                votes[1] += 1;
                            }
                        }

                        else {
                            if (x[374] <= 0.7134999930858612) {
                                votes[0] += 1;
                            }

                            else {
                                votes[1] += 1;
                            }
                        }

                        // tree #65
                        if (x[447] <= 6.988500118255615) {
                            if (x[455] <= -37.53700065612793) {
                                votes[0] += 1;
                            }

                            else {
                                votes[1] += 1;
                            }
                        }

                        else {
                            if (x[674] <= 0.7669999897480011) {
                                votes[0] += 1;
                            }

                            else {
                                votes[1] += 1;
                            }
                        }

                        // tree #66
                        if (x[419] <= -29.754499435424805) {
                            if (x[12] <= 1.8330000042915344) {
                                votes[0] += 1;
                            }

                            else {
                                votes[1] += 1;
                            }
                        }

                        else {
                            if (x[425] <= 87.21900177001953) {
                                votes[1] += 1;
                            }

                            else {
                                votes[0] += 1;
                            }
                        }

                        // tree #67
                        if (x[393] <= 9.97950029373169) {
                            if (x[305] <= -36.743499755859375) {
                                votes[0] += 1;
                            }

                            else {
                                votes[1] += 1;
                            }
                        }

                        else {
                            if (x[278] <= 0.6770000159740448) {
                                votes[0] += 1;
                            }

                            else {
                                votes[1] += 1;
                            }
                        }

                        // tree #68
                        if (x[359] <= -33.99650001525879) {
                            if (x[704] <= -0.8600000143051147) {
                                votes[0] += 1;
                            }

                            else {
                                votes[0] += 1;
                            }
                        }

                        else {
                            if (x[293] <= 91.1254997253418) {
                                votes[1] += 1;
                            }

                            else {
                                votes[0] += 1;
                            }
                        }

                        // tree #69
                        if (x[381] <= 10.985999584197998) {
                            if (x[359] <= -35.03450012207031) {
                                votes[0] += 1;
                            }

                            else {
                                votes[1] += 1;
                            }
                        }

                        else {
                            if (x[344] <= 0.6770000159740448) {
                                votes[0] += 1;
                            }

                            else {
                                votes[1] += 1;
                            }
                        }

                        // tree #70
                        if (x[335] <= -26.123000144958496) {
                            if (x[548] <= -0.6739999949932098) {
                                votes[0] += 1;
                            }

                            else {
                                votes[0] += 1;
                            }
                        }

                        else {
                            if (x[365] <= 66.46749877929688) {
                                votes[1] += 1;
                            }

                            else {
                                votes[0] += 1;
                            }
                        }

                        // tree #71
                        if (x[299] <= -31.49400043487549) {
                            if (x[299] <= -50.963998794555664) {
                                votes[0] += 1;
                            }

                            else {
                                votes[0] += 1;
                            }
                        }

                        else {
                            if (x[351] <= 17.12049961090088) {
                                votes[1] += 1;
                            }

                            else {
                                votes[0] += 1;
                            }
                        }

                        // tree #72
                        if (x[293] <= -35.888999938964844) {
                            if (x[4] <= -141.57100677490234) {
                                votes[1] += 1;
                            }

                            else {
                                votes[0] += 1;
                            }
                        }

                        else {
                            if (x[305] <= 86.06000137329102) {
                                votes[1] += 1;
                            }

                            else {
                                votes[0] += 1;
                            }
                        }

                        // tree #73
                        if (x[417] <= 8.27049970626831) {
                            if (x[215] <= 86.60900115966797) {
                                votes[1] += 1;
                            }

                            else {
                                votes[0] += 1;
                            }
                        }

                        else {
                            if (x[374] <= 0.8019999861717224) {
                                votes[0] += 1;
                            }

                            else {
                                votes[1] += 1;
                            }
                        }

                        // tree #74
                        if (x[305] <= -31.249999046325684) {
                            if (x[662] <= 0.8975000083446503) {
                                votes[0] += 1;
                            }

                            else {
                                votes[0] += 1;
                            }
                        }

                        else {
                            if (x[269] <= 88.47050094604492) {
                                votes[1] += 1;
                            }

                            else {
                                votes[0] += 1;
                            }
                        }

                        // tree #75
                        if (x[389] <= -26.550000190734863) {
                            if (x[470] <= -0.7574999928474426) {
                                votes[1] += 1;
                            }

                            else {
                                votes[0] += 1;
                            }
                        }

                        else {
                            if (x[77] <= -69.91599655151367) {
                                votes[0] += 1;
                            }

                            else {
                                votes[1] += 1;
                            }
                        }

                        // tree #76
                        if (x[317] <= -25.879000663757324) {
                            if (x[584] <= 0.8579999804496765) {
                                votes[0] += 1;
                            }

                            else {
                                votes[0] += 1;
                            }
                        }

                        else {
                            if (x[345] <= 11.597000122070312) {
                                votes[1] += 1;
                            }

                            else {
                                votes[0] += 1;
                            }
                        }

                        // tree #77
                        if (x[425] <= -26.73349952697754) {
                            if (x[440] <= -0.8255000114440918) {
                                votes[0] += 1;
                            }

                            else {
                                votes[0] += 1;
                            }
                        }

                        else {
                            if (x[179] <= -51.90999984741211) {
                                votes[0] += 1;
                            }

                            else {
                                votes[1] += 1;
                            }
                        }

                        // tree #78
                        if (x[447] <= 6.195499897003174) {
                            if (x[359] <= -35.46150016784668) {
                                votes[0] += 1;
                            }

                            else {
                                votes[1] += 1;
                            }
                        }

                        else {
                            if (x[218] <= 0.714000016450882) {
                                votes[0] += 1;
                            }

                            else {
                                votes[1] += 1;
                            }
                        }

                        // tree #79
                        if (x[317] <= -25.909500122070312) {
                            if (x[3] <= 274.20050048828125) {
                                votes[0] += 1;
                            }

                            else {
                                votes[1] += 1;
                            }
                        }

                        else {
                            if (x[101] <= -69.18350219726562) {
                                votes[0] += 1;
                            }

                            else {
                                votes[1] += 1;
                            }
                        }

                        // tree #80
                        if (x[423] <= 8.42300033569336) {
                            if (x[61] <= -0.8765000104904175) {
                                votes[0] += 1;
                            }

                            else {
                                votes[1] += 1;
                            }
                        }

                        else {
                            if (x[464] <= 0.7060000002384186) {
                                votes[0] += 1;
                            }

                            else {
                                votes[0] += 1;
                            }
                        }

                        // tree #81
                        if (x[305] <= -36.2549991607666) {
                            if (x[242] <= 0.960999995470047) {
                                votes[0] += 1;
                            }

                            else {
                                votes[0] += 1;
                            }
                        }

                        else {
                            if (x[359] <= 63.690500259399414) {
                                votes[1] += 1;
                            }

                            else {
                                votes[0] += 1;
                            }
                        }

                        // tree #82
                        if (x[407] <= -21.08750057220459) {
                            if (x[446] <= -0.6870000064373016) {
                                votes[1] += 1;
                            }

                            else {
                                votes[0] += 1;
                            }
                        }

                        else {
                            if (x[89] <= -76.32450103759766) {
                                votes[0] += 1;
                            }

                            else {
                                votes[1] += 1;
                            }
                        }

                        // tree #83
                        if (x[437] <= -26.33650016784668) {
                            if (x[488] <= -0.7950000166893005) {
                                votes[1] += 1;
                            }

                            else {
                                votes[0] += 1;
                            }
                        }

                        else {
                            if (x[203] <= -44.555999755859375) {
                                votes[0] += 1;
                            }

                            else {
                                votes[1] += 1;
                            }
                        }

                        // tree #84
                        if (x[365] <= -34.484500885009766) {
                            if (x[608] <= 0.9430000185966492) {
                                votes[0] += 1;
                            }

                            else {
                                votes[0] += 1;
                            }
                        }

                        else {
                            if (x[435] <= 12.878000259399414) {
                                votes[1] += 1;
                            }

                            else {
                                votes[0] += 1;
                            }
                        }

                        // tree #85
                        if (x[329] <= -37.597999572753906) {
                            if (x[15] <= 318.11500549316406) {
                                votes[0] += 1;
                            }

                            else {
                                votes[1] += 1;
                            }
                        }

                        else {
                            if (x[155] <= -48.46150016784668) {
                                votes[0] += 1;
                            }

                            else {
                                votes[1] += 1;
                            }
                        }

                        // tree #86
                        if (x[405] <= 10.223499774932861) {
                            if (x[437] <= -20.29450035095215) {
                                votes[0] += 1;
                            }

                            else {
                                votes[1] += 1;
                            }
                        }

                        else {
                            if (x[350] <= 0.6410000026226044) {
                                votes[0] += 1;
                            }

                            else {
                                votes[1] += 1;
                            }
                        }

                        // tree #87
                        if (x[369] <= 12.4205002784729) {
                            if (x[317] <= -29.236000061035156) {
                                votes[0] += 1;
                            }

                            else {
                                votes[1] += 1;
                            }
                        }

                        else {
                            if (x[284] <= 0.5659999847412109) {
                                votes[0] += 1;
                            }

                            else {
                                votes[0] += 1;
                            }
                        }

                        // tree #88
                        if (x[477] <= 9.735499858856201) {
                            if (x[491] <= -29.113500595092773) {
                                votes[0] += 1;
                            }

                            else {
                                votes[1] += 1;
                            }
                        }

                        else {
                            if (x[674] <= 0.8209999799728394) {
                                votes[0] += 1;
                            }

                            else {
                                votes[1] += 1;
                            }
                        }

                        // tree #89
                        if (x[453] <= 6.683500051498413) {
                            if (x[383] <= -28.930500030517578) {
                                votes[0] += 1;
                            }

                            else {
                                votes[1] += 1;
                            }
                        }

                        else {
                            if (x[290] <= 0.7000000178813934) {
                                votes[0] += 1;
                            }

                            else {
                                votes[1] += 1;
                            }
                        }

                        // tree #90
                        if (x[347] <= -26.305999755859375) {
                            if (x[10] <= 156.37200164794922) {
                                votes[0] += 1;
                            }

                            else {
                                votes[0] += 1;
                            }
                        }

                        else {
                            if (x[389] <= 75.2869987487793) {
                                votes[1] += 1;
                            }

                            else {
                                votes[0] += 1;
                            }
                        }

                        // tree #91
                        if (x[399] <= 8.941500186920166) {
                            if (x[395] <= -26.48900032043457) {
                                votes[0] += 1;
                            }

                            else {
                                votes[1] += 1;
                            }
                        }

                        else {
                            if (x[680] <= 0.8074999749660492) {
                                votes[0] += 1;
                            }

                            else {
                                votes[0] += 1;
                            }
                        }

                        // tree #92
                        if (x[485] <= -37.5364990234375) {
                            if (x[45] <= -212.43299865722656) {
                                votes[0] += 1;
                            }

                            else {
                                votes[0] += 1;
                            }
                        }

                        else {
                            if (x[107] <= -39.0935001373291) {
                                votes[0] += 1;
                            }

                            else {
                                votes[1] += 1;
                            }
                        }

                        // tree #93
                        if (x[353] <= -28.31999969482422) {
                            if (x[145] <= 3.127000093460083) {
                                votes[0] += 1;
                            }

                            else {
                                votes[1] += 1;
                            }
                        }

                        else {
                            if (x[309] <= 29.113999366760254) {
                                votes[1] += 1;
                            }

                            else {
                                votes[0] += 1;
                            }
                        }

                        // tree #94
                        if (x[407] <= -31.127999305725098) {
                            if (x[15] <= 312.2864990234375) {
                                votes[0] += 1;
                            }

                            else {
                                votes[1] += 1;
                            }
                        }

                        else {
                            if (x[185] <= -49.83549880981445) {
                                votes[0] += 1;
                            }

                            else {
                                votes[1] += 1;
                            }
                        }

                        // tree #95
                        if (x[453] <= 10.559000015258789) {
                            if (x[455] <= -36.98749923706055) {
                                votes[0] += 1;
                            }

                            else {
                                votes[1] += 1;
                            }
                        }

                        else {
                            if (x[386] <= 0.6940000057220459) {
                                votes[0] += 1;
                            }

                            else {
                                votes[1] += 1;
                            }
                        }

                        // tree #96
                        if (x[395] <= -24.078499794006348) {
                            if (x[476] <= -0.726500004529953) {
                                votes[1] += 1;
                            }

                            else {
                                votes[0] += 1;
                            }
                        }

                        else {
                            if (x[389] <= 48.40099906921387) {
                                votes[1] += 1;
                            }

                            else {
                                votes[0] += 1;
                            }
                        }

                        // tree #97
                        if (x[335] <= -29.84600067138672) {
                            if (x[110] <= 1.0104999840259552) {
                                votes[0] += 1;
                            }

                            else {
                                votes[0] += 1;
                            }
                        }

                        else {
                            if (x[327] <= 12.970000267028809) {
                                votes[1] += 1;
                            }

                            else {
                                votes[0] += 1;
                            }
                        }

                        // tree #98
                        if (x[245] <= -41.38199996948242) {
                            if (x[476] <= 0.8490000069141388) {
                                votes[0] += 1;
                            }

                            else {
                                votes[1] += 1;
                            }
                        }

                        else {
                            if (x[317] <= 96.8015022277832) {
                                votes[1] += 1;
                            }

                            else {
                                votes[0] += 1;
                            }
                        }

                        // tree #99
                        if (x[407] <= -26.70300006866455) {
                            if (x[632] <= -0.7819999754428864) {
                                votes[1] += 1;
                            }

                            else {
                                votes[0] += 1;
                            }
                        }

                        else {
                            if (x[335] <= 93.71950149536133) {
                                votes[1] += 1;
                            }

                            else {
                                votes[0] += 1;
                            }
                        }

                        // tree #100
                        if (x[441] <= 6.86650013923645) {
                            if (x[497] <= -29.84600067138672) {
                                votes[0] += 1;
                            }

                            else {
                                votes[1] += 1;
                            }
                        }

                        else {
                            if (x[284] <= 0.6944999992847443) {
                                votes[0] += 1;
                            }

                            else {
                                votes[1] += 1;
                            }
                        }

                        // return argmax of votes
                        uint8_t classIdx = 0;
                        float maxVotes = votes[0];

                        for (uint8_t i = 1; i < 2; i++) {
                            if (votes[i] > maxVotes) {
                                classIdx = i;
                                maxVotes = votes[i];
                            }
                        }

                        return classIdx;
                    }

                protected:
                };
            }
        }
    }