#pragma once
#include <cstdarg>
namespace Eloquent {
    namespace ML {
        namespace Port {
            class Classifier {
                public:
                    /**
                    * Predict class for features vector
                    */
                    int predict(float *x) {
                        uint8_t votes[4] = { 0 };
                        // tree #1
                        if (x[9] <= 55.689998626708984) {
                            if (x[25] <= 22.179999351501465) {
                                if (x[2] <= 63.84000015258789) {
                                    votes[1] += 1;
                                }

                                else {
                                    votes[0] += 1;
                                }
                            }

                            else {
                                if (x[12] <= 4.940000057220459) {
                                    votes[0] += 1;
                                }

                                else {
                                    votes[2] += 1;
                                }
                            }
                        }

                        else {
                            if (x[57] <= 6.75) {
                                if (x[48] <= 14.699999809265137) {
                                    votes[3] += 1;
                                }

                                else {
                                    votes[1] += 1;
                                }
                            }

                            else {
                                if (x[54] <= 10.53999948501587) {
                                    votes[3] += 1;
                                }

                                else {
                                    votes[1] += 1;
                                }
                            }
                        }

                        // tree #2
                        if (x[33] <= 16.380000114440918) {
                            if (x[51] <= 14.65999984741211) {
                                if (x[30] <= 5.680000066757202) {
                                    votes[3] += 1;
                                }

                                else {
                                    votes[0] += 1;
                                }
                            }

                            else {
                                if (x[38] <= 13.53000020980835) {
                                    votes[1] += 1;
                                }

                                else {
                                    votes[0] += 1;
                                }
                            }
                        }

                        else {
                            if (x[21] <= 19.299999237060547) {
                                if (x[61] <= 5.849999904632568) {
                                    votes[2] += 1;
                                }

                                else {
                                    votes[1] += 1;
                                }
                            }

                            else {
                                if (x[27] <= 11.149999618530273) {
                                    votes[0] += 1;
                                }

                                else {
                                    votes[2] += 1;
                                }
                            }
                        }

                        // tree #3
                        if (x[56] <= 9.46999979019165) {
                            if (x[10] <= 74.40999794006348) {
                                if (x[48] <= 13.319999694824219) {
                                    votes[0] += 1;
                                }

                                else {
                                    votes[0] += 1;
                                }
                            }

                            else {
                                if (x[48] <= 12.269999980926514) {
                                    votes[3] += 1;
                                }

                                else {
                                    votes[1] += 1;
                                }
                            }
                        }

                        else {
                            if (x[48] <= 22.299999237060547) {
                                if (x[46] <= 6.269999980926514) {
                                    votes[2] += 1;
                                }

                                else {
                                    votes[1] += 1;
                                }
                            }

                            else {
                                if (x[22] <= 49.829999923706055) {
                                    votes[2] += 1;
                                }

                                else {
                                    votes[0] += 1;
                                }
                            }
                        }

                        // tree #4
                        if (x[29] <= 14.699999809265137) {
                            if (x[13] <= 113.41999816894531) {
                                if (x[2] <= 142.87999725341797) {
                                    votes[0] += 1;
                                }

                                else {
                                    votes[3] += 1;
                                }
                            }

                            else {
                                if (x[34] <= 2.549999952316284) {
                                    votes[1] += 1;
                                }

                                else {
                                    votes[3] += 1;
                                }
                            }
                        }

                        else {
                            if (x[60] <= 13.53000020980835) {
                                if (x[35] <= 8.46999979019165) {
                                    votes[0] += 1;
                                }

                                else {
                                    votes[2] += 1;
                                }
                            }

                            else {
                                if (x[7] <= 119.65999603271484) {
                                    votes[1] += 1;
                                }

                                else {
                                    votes[2] += 1;
                                }
                            }
                        }

                        // tree #5
                        if (x[49] <= 24.809999465942383) {
                            if (x[48] <= 14.699999809265137) {
                                if (x[30] <= 13.039999961853027) {
                                    votes[3] += 1;
                                }

                                else {
                                    votes[2] += 1;
                                }
                            }

                            else {
                                if (x[27] <= 34.070000648498535) {
                                    votes[1] += 1;
                                }

                                else {
                                    votes[2] += 1;
                                }
                            }
                        }

                        else {
                            if (x[34] <= 14.00999927520752) {
                                votes[0] += 1;
                            }

                            else {
                                if (x[41] <= 38.91999816894531) {
                                    votes[2] += 1;
                                }

                                else {
                                    votes[0] += 1;
                                }
                            }
                        }

                        // tree #6
                        if (x[32] <= 18.25999927520752) {
                            if (x[59] <= 10.149999618530273) {
                                if (x[13] <= 118.34000015258789) {
                                    votes[0] += 1;
                                }

                                else {
                                    votes[3] += 1;
                                }
                            }

                            else {
                                if (x[48] <= 1.809999942779541) {
                                    votes[2] += 1;
                                }

                                else {
                                    votes[1] += 1;
                                }
                            }
                        }

                        else {
                            if (x[1] <= 73.04000091552734) {
                                if (x[56] <= 8.579999923706055) {
                                    votes[3] += 1;
                                }

                                else {
                                    votes[1] += 1;
                                }
                            }

                            else {
                                if (x[57] <= 20.699999809265137) {
                                    votes[2] += 1;
                                }

                                else {
                                    votes[0] += 1;
                                }
                            }
                        }

                        // tree #7
                        if (x[31] <= 16.380000114440918) {
                            if (x[29] <= 6.169999837875366) {
                                if (x[45] <= 17.469999313354492) {
                                    votes[3] += 1;
                                }

                                else {
                                    votes[1] += 1;
                                }
                            }

                            else {
                                if (x[60] <= 4.359999895095825) {
                                    votes[0] += 1;
                                }

                                else {
                                    votes[1] += 1;
                                }
                            }
                        }

                        else {
                            if (x[24] <= 35.459999084472656) {
                                if (x[45] <= 8.46999979019165) {
                                    votes[2] += 1;
                                }

                                else {
                                    votes[2] += 1;
                                }
                            }

                            else {
                                if (x[8] <= 133.3300018310547) {
                                    votes[0] += 1;
                                }

                                else {
                                    votes[2] += 1;
                                }
                            }
                        }

                        // tree #8
                        if (x[28] <= 21.40999984741211) {
                            if (x[57] <= 9.209999561309814) {
                                if (x[63] <= 10.829999446868896) {
                                    votes[3] += 1;
                                }

                                else {
                                    votes[2] += 1;
                                }
                            }

                            else {
                                if (x[19] <= 69.56999969482422) {
                                    votes[1] += 1;
                                }

                                else {
                                    votes[0] += 1;
                                }
                            }
                        }

                        else {
                            if (x[5] <= 20.269999504089355) {
                                votes[0] += 1;
                            }

                            else {
                                if (x[2] <= 55.260000228881836) {
                                    votes[0] += 1;
                                }

                                else {
                                    votes[2] += 1;
                                }
                            }
                        }

                        // tree #9
                        if (x[42] <= 21.249999046325684) {
                            if (x[58] <= 8.819999694824219) {
                                if (x[20] <= 28.249999046325684) {
                                    votes[3] += 1;
                                }

                                else {
                                    votes[2] += 1;
                                }
                            }

                            else {
                                if (x[4] <= 177.8199920654297) {
                                    votes[1] += 1;
                                }

                                else {
                                    votes[2] += 1;
                                }
                            }
                        }

                        else {
                            if (x[2] <= 120.3599967956543) {
                                if (x[56] <= 13.730000019073486) {
                                    votes[2] += 1;
                                }

                                else {
                                    votes[0] += 1;
                                }
                            }

                            else {
                                votes[2] += 1;
                            }
                        }

                        // tree #10
                        if (x[30] <= 22.890000343322754) {
                            if (x[56] <= 12.269999980926514) {
                                if (x[8] <= 91.63000106811523) {
                                    votes[0] += 1;
                                }

                                else {
                                    votes[3] += 1;
                                }
                            }

                            else {
                                if (x[41] <= 4.039999961853027) {
                                    votes[2] += 1;
                                }

                                else {
                                    votes[1] += 1;
                                }
                            }
                        }

                        else {
                            if (x[44] <= 28.25999927520752) {
                                if (x[24] <= 17.75) {
                                    votes[2] += 1;
                                }

                                else {
                                    votes[2] += 1;
                                }
                            }

                            else {
                                if (x[9] <= 227.30999755859375) {
                                    votes[0] += 1;
                                }

                                else {
                                    votes[2] += 1;
                                }
                            }
                        }

                        // tree #11
                        if (x[58] <= 8.819999694824219) {
                            if (x[11] <= 71.92000007629395) {
                                if (x[16] <= 7.659999847412109) {
                                    votes[1] += 1;
                                }

                                else {
                                    votes[0] += 1;
                                }
                            }

                            else {
                                votes[3] += 1;
                            }
                        }

                        else {
                            if (x[26] <= 25.420000076293945) {
                                if (x[56] <= 23.4399995803833) {
                                    votes[1] += 1;
                                }

                                else {
                                    votes[3] += 1;
                                }
                            }

                            else {
                                if (x[41] <= 32.54999923706055) {
                                    votes[2] += 1;
                                }

                                else {
                                    votes[0] += 1;
                                }
                            }
                        }

                        // tree #12
                        if (x[56] <= 6.75) {
                            if (x[33] <= 11.71999979019165) {
                                if (x[10] <= 82.18000030517578) {
                                    votes[0] += 1;
                                }

                                else {
                                    votes[3] += 1;
                                }
                            }

                            else {
                                if (x[40] <= 22.02999973297119) {
                                    votes[3] += 1;
                                }

                                else {
                                    votes[0] += 1;
                                }
                            }
                        }

                        else {
                            if (x[47] <= 21.239999771118164) {
                                if (x[5] <= 34.7599983215332) {
                                    votes[0] += 1;
                                }

                                else {
                                    votes[1] += 1;
                                }
                            }

                            else {
                                if (x[15] <= 15.00999927520752) {
                                    votes[0] += 1;
                                }

                                else {
                                    votes[2] += 1;
                                }
                            }
                        }

                        // tree #13
                        if (x[11] <= 51.12999725341797) {
                            if (x[19] <= 37.60999870300293) {
                                if (x[31] <= 21.399999618530273) {
                                    votes[0] += 1;
                                }

                                else {
                                    votes[2] += 1;
                                }
                            }

                            else {
                                votes[2] += 1;
                            }
                        }

                        else {
                            if (x[52] <= 8.819999694824219) {
                                if (x[34] <= 16.949999809265137) {
                                    votes[3] += 1;
                                }

                                else {
                                    votes[2] += 1;
                                }
                            }

                            else {
                                if (x[47] <= 21.369999885559082) {
                                    votes[1] += 1;
                                }

                                else {
                                    votes[2] += 1;
                                }
                            }
                        }

                        // tree #14
                        if (x[46] <= 13.289999961853027) {
                            if (x[33] <= 18.199999809265137) {
                                if (x[35] <= 5.680000066757202) {
                                    votes[0] += 1;
                                }

                                else {
                                    votes[3] += 1;
                                }
                            }

                            else {
                                if (x[18] <= 40.189998626708984) {
                                    votes[2] += 1;
                                }

                                else {
                                    votes[0] += 1;
                                }
                            }
                        }

                        else {
                            if (x[1] <= 157.58999633789062) {
                                if (x[41] <= 22.00999927520752) {
                                    votes[1] += 1;
                                }

                                else {
                                    votes[0] += 1;
                                }
                            }

                            else {
                                if (x[9] <= 34.31999969482422) {
                                    votes[0] += 1;
                                }

                                else {
                                    votes[2] += 1;
                                }
                            }
                        }

                        // tree #15
                        if (x[4] <= 174.8399887084961) {
                            if (x[43] <= 10.779999732971191) {
                                if (x[12] <= 80.01999855041504) {
                                    votes[0] += 1;
                                }

                                else {
                                    votes[3] += 1;
                                }
                            }

                            else {
                                if (x[60] <= 4.359999895095825) {
                                    votes[3] += 1;
                                }

                                else {
                                    votes[1] += 1;
                                }
                            }
                        }

                        else {
                            votes[2] += 1;
                        }

                        // tree #16
                        if (x[30] <= 5.680000066757202) {
                            if (x[16] <= 21.299999237060547) {
                                if (x[35] <= 11.429999828338623) {
                                    votes[0] += 1;
                                }

                                else {
                                    votes[3] += 1;
                                }
                            }

                            else {
                                if (x[43] <= 20.66999912261963) {
                                    votes[3] += 1;
                                }

                                else {
                                    votes[1] += 1;
                                }
                            }
                        }

                        else {
                            if (x[34] <= 19.979999542236328) {
                                if (x[58] <= 9.149999618530273) {
                                    votes[0] += 1;
                                }

                                else {
                                    votes[1] += 1;
                                }
                            }

                            else {
                                if (x[22] <= 31.130000114440918) {
                                    votes[2] += 1;
                                }

                                else {
                                    votes[0] += 1;
                                }
                            }
                        }

                        // tree #17
                        if (x[39] <= 16.77999973297119) {
                            if (x[12] <= 56.80999755859375) {
                                if (x[60] <= 7.909999847412109) {
                                    votes[0] += 1;
                                }

                                else {
                                    votes[1] += 1;
                                }
                            }

                            else {
                                if (x[30] <= 23.97000026702881) {
                                    votes[3] += 1;
                                }

                                else {
                                    votes[2] += 1;
                                }
                            }
                        }

                        else {
                            if (x[40] <= 47.71999931335449) {
                                if (x[45] <= 17.90999984741211) {
                                    votes[1] += 1;
                                }

                                else {
                                    votes[2] += 1;
                                }
                            }

                            else {
                                votes[0] += 1;
                            }
                        }

                        // tree #18
                        if (x[4] <= 185.39999389648438) {
                            if (x[25] <= 27.4399995803833) {
                                if (x[57] <= 9.209999561309814) {
                                    votes[3] += 1;
                                }

                                else {
                                    votes[1] += 1;
                                }
                            }

                            else {
                                if (x[42] <= 9.149999618530273) {
                                    votes[2] += 1;
                                }

                                else {
                                    votes[0] += 1;
                                }
                            }
                        }

                        else {
                            votes[2] += 1;
                        }

                        // tree #19
                        if (x[54] <= 10.53999948501587) {
                            if (x[9] <= 103.5999984741211) {
                                if (x[4] <= 34.439998626708984) {
                                    votes[1] += 1;
                                }

                                else {
                                    votes[0] += 1;
                                }
                            }

                            else {
                                if (x[6] <= 42.029998779296875) {
                                    votes[0] += 1;
                                }

                                else {
                                    votes[3] += 1;
                                }
                            }
                        }

                        else {
                            if (x[32] <= 19.4399995803833) {
                                if (x[40] <= 8.819999694824219) {
                                    votes[2] += 1;
                                }

                                else {
                                    votes[1] += 1;
                                }
                            }

                            else {
                                if (x[40] <= 59.760000228881836) {
                                    votes[2] += 1;
                                }

                                else {
                                    votes[0] += 1;
                                }
                            }
                        }

                        // tree #20
                        if (x[10] <= 92.64999771118164) {
                            if (x[33] <= 19.479999542236328) {
                                if (x[7] <= 22.179999351501465) {
                                    votes[1] += 1;
                                }

                                else {
                                    votes[0] += 1;
                                }
                            }

                            else {
                                if (x[58] <= 4.039999961853027) {
                                    votes[0] += 1;
                                }

                                else {
                                    votes[2] += 1;
                                }
                            }
                        }

                        else {
                            if (x[50] <= 14.900000095367432) {
                                if (x[15] <= 140.37999725341797) {
                                    votes[3] += 1;
                                }

                                else {
                                    votes[3] += 1;
                                }
                            }

                            else {
                                if (x[34] <= 9.269999980926514) {
                                    votes[1] += 1;
                                }

                                else {
                                    votes[2] += 1;
                                }
                            }
                        }

                        // tree #21
                        if (x[30] <= 23.97000026702881) {
                            if (x[57] <= 8.399999618530273) {
                                if (x[35] <= 6.5899999141693115) {
                                    votes[0] += 1;
                                }

                                else {
                                    votes[3] += 1;
                                }
                            }

                            else {
                                if (x[7] <= 54.30999946594238) {
                                    votes[1] += 1;
                                }

                                else {
                                    votes[1] += 1;
                                }
                            }
                        }

                        else {
                            if (x[41] <= 24.920000076293945) {
                                if (x[22] <= 6.979999780654907) {
                                    votes[3] += 1;
                                }

                                else {
                                    votes[2] += 1;
                                }
                            }

                            else {
                                votes[0] += 1;
                            }
                        }

                        // tree #22
                        if (x[4] <= 174.8399887084961) {
                            if (x[55] <= 14.25) {
                                if (x[13] <= 118.34000015258789) {
                                    votes[0] += 1;
                                }

                                else {
                                    votes[3] += 1;
                                }
                            }

                            else {
                                if (x[28] <= 42.739999771118164) {
                                    votes[1] += 1;
                                }

                                else {
                                    votes[0] += 1;
                                }
                            }
                        }

                        else {
                            if (x[45] <= 5.680000066757202) {
                                votes[0] += 1;
                            }

                            else {
                                votes[2] += 1;
                            }
                        }

                        // tree #23
                        if (x[42] <= 21.249999046325684) {
                            if (x[47] <= 11.149999618530273) {
                                if (x[13] <= 111.1099967956543) {
                                    votes[0] += 1;
                                }

                                else {
                                    votes[3] += 1;
                                }
                            }

                            else {
                                if (x[60] <= 4.940000057220459) {
                                    votes[0] += 1;
                                }

                                else {
                                    votes[1] += 1;
                                }
                            }
                        }

                        else {
                            if (x[1] <= 100.27999877929688) {
                                votes[0] += 1;
                            }

                            else {
                                if (x[44] <= 23.609999656677246) {
                                    votes[0] += 1;
                                }

                                else {
                                    votes[2] += 1;
                                }
                            }
                        }

                        // tree #24
                        if (x[10] <= 37.78999900817871) {
                            if (x[31] <= 13.78000020980835) {
                                if (x[33] <= 11.71999979019165) {
                                    votes[0] += 1;
                                }

                                else {
                                    votes[0] += 1;
                                }
                            }

                            else {
                                if (x[18] <= 10.209999561309814) {
                                    votes[1] += 1;
                                }

                                else {
                                    votes[2] += 1;
                                }
                            }
                        }

                        else {
                            if (x[48] <= 12.269999980926514) {
                                if (x[33] <= 18.359999656677246) {
                                    votes[3] += 1;
                                }

                                else {
                                    votes[0] += 1;
                                }
                            }

                            else {
                                if (x[38] <= 23.399999618530273) {
                                    votes[1] += 1;
                                }

                                else {
                                    votes[2] += 1;
                                }
                            }
                        }

                        // tree #25
                        if (x[32] <= 18.449999809265137) {
                            if (x[63] <= 8.46999979019165) {
                                if (x[60] <= 7.659999847412109) {
                                    votes[3] += 1;
                                }

                                else {
                                    votes[1] += 1;
                                }
                            }

                            else {
                                if (x[38] <= 18.479999542236328) {
                                    votes[1] += 1;
                                }

                                else {
                                    votes[0] += 1;
                                }
                            }
                        }

                        else {
                            if (x[27] <= 45.46999931335449) {
                                if (x[28] <= 15.059999942779541) {
                                    votes[2] += 1;
                                }

                                else {
                                    votes[2] += 1;
                                }
                            }

                            else {
                                votes[0] += 1;
                            }
                        }

                        // tree #26
                        if (x[56] <= 10.209999561309814) {
                            if (x[61] <= 9.889999389648438) {
                                if (x[9] <= 103.5999984741211) {
                                    votes[0] += 1;
                                }

                                else {
                                    votes[3] += 1;
                                }
                            }

                            else {
                                if (x[59] <= 8.46999979019165) {
                                    votes[2] += 1;
                                }

                                else {
                                    votes[0] += 1;
                                }
                            }
                        }

                        else {
                            if (x[61] <= 12.789999961853027) {
                                if (x[34] <= 11.429999828338623) {
                                    votes[1] += 1;
                                }

                                else {
                                    votes[2] += 1;
                                }
                            }

                            else {
                                if (x[3] <= 142.68000030517578) {
                                    votes[1] += 1;
                                }

                                else {
                                    votes[2] += 1;
                                }
                            }
                        }

                        // tree #27
                        if (x[4] <= 169.01998901367188) {
                            if (x[11] <= 82.40999984741211) {
                                if (x[54] <= 4.359999895095825) {
                                    votes[0] += 1;
                                }

                                else {
                                    votes[0] += 1;
                                }
                            }

                            else {
                                if (x[45] <= 12.269999980926514) {
                                    votes[3] += 1;
                                }

                                else {
                                    votes[1] += 1;
                                }
                            }
                        }

                        else {
                            if (x[22] <= 5.429999828338623) {
                                votes[0] += 1;
                            }

                            else {
                                votes[2] += 1;
                            }
                        }

                        // tree #28
                        if (x[58] <= 8.46999979019165) {
                            if (x[10] <= 74.40999794006348) {
                                if (x[17] <= 4.940000057220459) {
                                    votes[1] += 1;
                                }

                                else {
                                    votes[0] += 1;
                                }
                            }

                            else {
                                if (x[41] <= 14.4399995803833) {
                                    votes[3] += 1;
                                }

                                else {
                                    votes[1] += 1;
                                }
                            }
                        }

                        else {
                            if (x[41] <= 22.00999927520752) {
                                if (x[48] <= 9.209999561309814) {
                                    votes[2] += 1;
                                }

                                else {
                                    votes[1] += 1;
                                }
                            }

                            else {
                                if (x[30] <= 35.45000076293945) {
                                    votes[2] += 1;
                                }

                                else {
                                    votes[0] += 1;
                                }
                            }
                        }

                        // tree #29
                        if (x[32] <= 18.449999809265137) {
                            if (x[52] <= 9.209999561309814) {
                                if (x[15] <= 127.03999710083008) {
                                    votes[0] += 1;
                                }

                                else {
                                    votes[3] += 1;
                                }
                            }

                            else {
                                if (x[19] <= 13.289999961853027) {
                                    votes[0] += 1;
                                }

                                else {
                                    votes[1] += 1;
                                }
                            }
                        }

                        else {
                            if (x[23] <= 5.680000066757202) {
                                if (x[35] <= 10.699999809265137) {
                                    votes[3] += 1;
                                }

                                else {
                                    votes[1] += 1;
                                }
                            }

                            else {
                                if (x[4] <= 39.959999084472656) {
                                    votes[0] += 1;
                                }

                                else {
                                    votes[2] += 1;
                                }
                            }
                        }

                        // tree #30
                        if (x[51] <= 9.859999656677246) {
                            if (x[28] <= 16.380000114440918) {
                                if (x[10] <= 83.64999771118164) {
                                    votes[0] += 1;
                                }

                                else {
                                    votes[3] += 1;
                                }
                            }

                            else {
                                if (x[9] <= 137.60999298095703) {
                                    votes[2] += 1;
                                }

                                else {
                                    votes[3] += 1;
                                }
                            }
                        }

                        else {
                            if (x[35] <= 25.439998626708984) {
                                if (x[28] <= 22.3100004196167) {
                                    votes[1] += 1;
                                }

                                else {
                                    votes[2] += 1;
                                }
                            }

                            else {
                                votes[2] += 1;
                            }
                        }

                        // tree #31
                        if (x[1] <= 152.09999084472656) {
                            if (x[46] <= 13.289999961853027) {
                                if (x[15] <= 101.0999984741211) {
                                    votes[0] += 1;
                                }

                                else {
                                    votes[3] += 1;
                                }
                            }

                            else {
                                if (x[43] <= 23.84999942779541) {
                                    votes[1] += 1;
                                }

                                else {
                                    votes[0] += 1;
                                }
                            }
                        }

                        else {
                            if (x[19] <= 124.18000030517578) {
                                if (x[23] <= 49.42999839782715) {
                                    votes[2] += 1;
                                }

                                else {
                                    votes[0] += 1;
                                }
                            }

                            else {
                                votes[1] += 1;
                            }
                        }

                        // tree #32
                        if (x[31] <= 19.6299991607666) {
                            if (x[45] <= 10.779999732971191) {
                                if (x[13] <= 93.38999938964844) {
                                    votes[0] += 1;
                                }

                                else {
                                    votes[3] += 1;
                                }
                            }

                            else {
                                if (x[61] <= 4.359999895095825) {
                                    votes[0] += 1;
                                }

                                else {
                                    votes[1] += 1;
                                }
                            }
                        }

                        else {
                            if (x[0] <= 55.48999786376953) {
                                votes[0] += 1;
                            }

                            else {
                                if (x[6] <= 20.719998836517334) {
                                    votes[0] += 1;
                                }

                                else {
                                    votes[2] += 1;
                                }
                            }
                        }

                        // tree #33
                        if (x[28] <= 30.27999973297119) {
                            if (x[10] <= 74.62999725341797) {
                                if (x[33] <= 13.460000038146973) {
                                    votes[0] += 1;
                                }

                                else {
                                    votes[1] += 1;
                                }
                            }

                            else {
                                if (x[50] <= 9.889999389648438) {
                                    votes[3] += 1;
                                }

                                else {
                                    votes[1] += 1;
                                }
                            }
                        }

                        else {
                            if (x[41] <= 24.920000076293945) {
                                votes[2] += 1;
                            }

                            else {
                                votes[0] += 1;
                            }
                        }

                        // tree #34
                        if (x[1] <= 151.64999389648438) {
                            if (x[32] <= 20.619998931884766) {
                                if (x[11] <= 82.40999984741211) {
                                    votes[0] += 1;
                                }

                                else {
                                    votes[3] += 1;
                                }
                            }

                            else {
                                if (x[30] <= 23.68000030517578) {
                                    votes[0] += 1;
                                }

                                else {
                                    votes[2] += 1;
                                }
                            }
                        }

                        else {
                            votes[2] += 1;
                        }

                        // tree #35
                        if (x[32] <= 15.980000019073486) {
                            if (x[35] <= 6.5899999141693115) {
                                if (x[52] <= 11.709999561309814) {
                                    votes[0] += 1;
                                }

                                else {
                                    votes[1] += 1;
                                }
                            }

                            else {
                                if (x[61] <= 12.269999980926514) {
                                    votes[3] += 1;
                                }

                                else {
                                    votes[2] += 1;
                                }
                            }
                        }

                        else {
                            if (x[30] <= 21.239999771118164) {
                                if (x[51] <= 19.300000190734863) {
                                    votes[1] += 1;
                                }

                                else {
                                    votes[2] += 1;
                                }
                            }

                            else {
                                if (x[35] <= 27.88999843597412) {
                                    votes[2] += 1;
                                }

                                else {
                                    votes[0] += 1;
                                }
                            }
                        }

                        // tree #36
                        if (x[26] <= 24.670000076293945) {
                            if (x[62] <= 7.659999847412109) {
                                if (x[27] <= 15.12999963760376) {
                                    votes[0] += 1;
                                }

                                else {
                                    votes[3] += 1;
                                }
                            }

                            else {
                                if (x[43] <= 9.339999675750732) {
                                    votes[3] += 1;
                                }

                                else {
                                    votes[1] += 1;
                                }
                            }
                        }

                        else {
                            if (x[34] <= 12.569999694824219) {
                                votes[1] += 1;
                            }

                            else {
                                if (x[35] <= 27.19999885559082) {
                                    votes[2] += 1;
                                }

                                else {
                                    votes[0] += 1;
                                }
                            }
                        }

                        // tree #37
                        if (x[54] <= 10.53999948501587) {
                            if (x[61] <= 16.579999923706055) {
                                if (x[13] <= 112.68000030517578) {
                                    votes[0] += 1;
                                }

                                else {
                                    votes[3] += 1;
                                }
                            }

                            else {
                                votes[1] += 1;
                            }
                        }

                        else {
                            if (x[47] <= 26.0) {
                                if (x[58] <= 21.82999897003174) {
                                    votes[1] += 1;
                                }

                                else {
                                    votes[1] += 1;
                                }
                            }

                            else {
                                if (x[3] <= 165.04999542236328) {
                                    votes[2] += 1;
                                }

                                else {
                                    votes[2] += 1;
                                }
                            }
                        }

                        // tree #38
                        if (x[32] <= 18.25999927520752) {
                            if (x[20] <= 30.09000015258789) {
                                if (x[44] <= 7.170000076293945) {
                                    votes[3] += 1;
                                }

                                else {
                                    votes[0] += 1;
                                }
                            }

                            else {
                                if (x[34] <= 9.46999979019165) {
                                    votes[1] += 1;
                                }

                                else {
                                    votes[2] += 1;
                                }
                            }
                        }

                        else {
                            if (x[14] <= 6.169999837875366) {
                                votes[0] += 1;
                            }

                            else {
                                if (x[21] <= 9.889999389648438) {
                                    votes[3] += 1;
                                }

                                else {
                                    votes[2] += 1;
                                }
                            }
                        }

                        // tree #39
                        if (x[60] <= 7.659999847412109) {
                            if (x[11] <= 66.39000129699707) {
                                if (x[8] <= 26.159998893737793) {
                                    votes[2] += 1;
                                }

                                else {
                                    votes[0] += 1;
                                }
                            }

                            else {
                                if (x[43] <= 10.809999942779541) {
                                    votes[3] += 1;
                                }

                                else {
                                    votes[1] += 1;
                                }
                            }
                        }

                        else {
                            if (x[48] <= 20.769999504089355) {
                                if (x[42] <= 10.309999942779541) {
                                    votes[2] += 1;
                                }

                                else {
                                    votes[1] += 1;
                                }
                            }

                            else {
                                if (x[46] <= 32.92999839782715) {
                                    votes[2] += 1;
                                }

                                else {
                                    votes[0] += 1;
                                }
                            }
                        }

                        // tree #40
                        if (x[26] <= 21.869999885559082) {
                            if (x[28] <= 8.819999694824219) {
                                if (x[45] <= 1.809999942779541) {
                                    votes[0] += 1;
                                }

                                else {
                                    votes[3] += 1;
                                }
                            }

                            else {
                                if (x[60] <= 4.359999895095825) {
                                    votes[0] += 1;
                                }

                                else {
                                    votes[1] += 1;
                                }
                            }
                        }

                        else {
                            if (x[30] <= 17.34999942779541) {
                                if (x[29] <= 8.819999694824219) {
                                    votes[3] += 1;
                                }

                                else {
                                    votes[1] += 1;
                                }
                            }

                            else {
                                if (x[33] <= 30.389999389648438) {
                                    votes[2] += 1;
                                }

                                else {
                                    votes[0] += 1;
                                }
                            }
                        }

                        // tree #41
                        if (x[52] <= 9.209999561309814) {
                            if (x[14] <= 55.64999771118164) {
                                if (x[17] <= 11.989999771118164) {
                                    votes[3] += 1;
                                }

                                else {
                                    votes[0] += 1;
                                }
                            }

                            else {
                                if (x[59] <= 7.170000076293945) {
                                    votes[3] += 1;
                                }

                                else {
                                    votes[2] += 1;
                                }
                            }
                        }

                        else {
                            if (x[41] <= 22.00999927520752) {
                                if (x[38] <= 7.909999847412109) {
                                    votes[2] += 1;
                                }

                                else {
                                    votes[1] += 1;
                                }
                            }

                            else {
                                if (x[61] <= 25.25) {
                                    votes[2] += 1;
                                }

                                else {
                                    votes[0] += 1;
                                }
                            }
                        }

                        // tree #42
                        if (x[1] <= 152.09999084472656) {
                            if (x[10] <= 88.28999710083008) {
                                if (x[13] <= 41.64999961853027) {
                                    votes[2] += 1;
                                }

                                else {
                                    votes[0] += 1;
                                }
                            }

                            else {
                                if (x[56] <= 11.699999809265137) {
                                    votes[3] += 1;
                                }

                                else {
                                    votes[1] += 1;
                                }
                            }
                        }

                        else {
                            if (x[17] <= 27.140000343322754) {
                                votes[0] += 1;
                            }

                            else {
                                votes[2] += 1;
                            }
                        }

                        // tree #43
                        if (x[37] <= 16.380000114440918) {
                            if (x[28] <= 16.77999973297119) {
                                if (x[48] <= 15.529999732971191) {
                                    votes[3] += 1;
                                }

                                else {
                                    votes[0] += 1;
                                }
                            }

                            else {
                                if (x[54] <= 9.46999979019165) {
                                    votes[0] += 1;
                                }

                                else {
                                    votes[1] += 1;
                                }
                            }
                        }

                        else {
                            if (x[24] <= 52.78999710083008) {
                                if (x[61] <= 14.470000267028809) {
                                    votes[2] += 1;
                                }

                                else {
                                    votes[1] += 1;
                                }
                            }

                            else {
                                votes[0] += 1;
                            }
                        }

                        // tree #44
                        if (x[28] <= 21.40999984741211) {
                            if (x[30] <= 8.46999979019165) {
                                if (x[46] <= 16.0600004196167) {
                                    votes[3] += 1;
                                }

                                else {
                                    votes[1] += 1;
                                }
                            }

                            else {
                                if (x[54] <= 5.680000066757202) {
                                    votes[0] += 1;
                                }

                                else {
                                    votes[1] += 1;
                                }
                            }
                        }

                        else {
                            if (x[24] <= 45.82999801635742) {
                                if (x[25] <= 21.1899995803833) {
                                    votes[3] += 1;
                                }

                                else {
                                    votes[2] += 1;
                                }
                            }

                            else {
                                if (x[46] <= 27.589998245239258) {
                                    votes[1] += 1;
                                }

                                else {
                                    votes[0] += 1;
                                }
                            }
                        }

                        // tree #45
                        if (x[10] <= 88.28999710083008) {
                            if (x[1] <= 70.36999893188477) {
                                if (x[22] <= 24.839999675750732) {
                                    votes[1] += 1;
                                }

                                else {
                                    votes[0] += 1;
                                }
                            }

                            else {
                                if (x[28] <= 21.249999046325684) {
                                    votes[0] += 1;
                                }

                                else {
                                    votes[2] += 1;
                                }
                            }
                        }

                        else {
                            if (x[58] <= 9.889999389648438) {
                                if (x[6] <= 198.4699935913086) {
                                    votes[3] += 1;
                                }

                                else {
                                    votes[2] += 1;
                                }
                            }

                            else {
                                if (x[32] <= 9.149999618530273) {
                                    votes[1] += 1;
                                }

                                else {
                                    votes[2] += 1;
                                }
                            }
                        }

                        // tree #46
                        if (x[58] <= 8.46999979019165) {
                            if (x[28] <= 17.34000015258789) {
                                if (x[36] <= 6.75) {
                                    votes[0] += 1;
                                }

                                else {
                                    votes[3] += 1;
                                }
                            }

                            else {
                                if (x[16] <= 32.26999855041504) {
                                    votes[2] += 1;
                                }

                                else {
                                    votes[0] += 1;
                                }
                            }
                        }

                        else {
                            if (x[30] <= 25.049999237060547) {
                                if (x[36] <= 24.779998779296875) {
                                    votes[1] += 1;
                                }

                                else {
                                    votes[2] += 1;
                                }
                            }

                            else {
                                if (x[26] <= 46.38999938964844) {
                                    votes[2] += 1;
                                }

                                else {
                                    votes[0] += 1;
                                }
                            }
                        }

                        // tree #47
                        if (x[53] <= 5.680000066757202) {
                            if (x[20] <= 6.169999837875366) {
                                votes[3] += 1;
                            }

                            else {
                                if (x[20] <= 66.69000053405762) {
                                    votes[0] += 1;
                                }

                                else {
                                    votes[3] += 1;
                                }
                            }
                        }

                        else {
                            if (x[41] <= 22.00999927520752) {
                                if (x[32] <= 5.680000066757202) {
                                    votes[1] += 1;
                                }

                                else {
                                    votes[2] += 1;
                                }
                            }

                            else {
                                if (x[21] <= 68.72999572753906) {
                                    votes[2] += 1;
                                }

                                else {
                                    votes[0] += 1;
                                }
                            }
                        }

                        // tree #48
                        if (x[9] <= 43.35999870300293) {
                            if (x[24] <= 31.97000026702881) {
                                if (x[11] <= 30.079998016357422) {
                                    votes[2] += 1;
                                }

                                else {
                                    votes[0] += 1;
                                }
                            }

                            else {
                                votes[0] += 1;
                            }
                        }

                        else {
                            if (x[43] <= 18.969999313354492) {
                                if (x[60] <= 12.769999980926514) {
                                    votes[3] += 1;
                                }

                                else {
                                    votes[1] += 1;
                                }
                            }

                            else {
                                if (x[27] <= 8.849999904632568) {
                                    votes[1] += 1;
                                }

                                else {
                                    votes[2] += 1;
                                }
                            }
                        }

                        // tree #49
                        if (x[58] <= 9.889999389648438) {
                            if (x[35] <= 19.969999313354492) {
                                if (x[9] <= 33.459999084472656) {
                                    votes[0] += 1;
                                }

                                else {
                                    votes[3] += 1;
                                }
                            }

                            else {
                                if (x[7] <= 12.130000114440918) {
                                    votes[0] += 1;
                                }

                                else {
                                    votes[2] += 1;
                                }
                            }
                        }

                        else {
                            if (x[43] <= 23.109999656677246) {
                                if (x[40] <= 8.819999694824219) {
                                    votes[2] += 1;
                                }

                                else {
                                    votes[1] += 1;
                                }
                            }

                            else {
                                if (x[17] <= 202.17999267578125) {
                                    votes[2] += 1;
                                }

                                else {
                                    votes[0] += 1;
                                }
                            }
                        }

                        // tree #50
                        if (x[62] <= 7.659999847412109) {
                            if (x[11] <= 74.83999824523926) {
                                if (x[16] <= 13.239999771118164) {
                                    votes[3] += 1;
                                }

                                else {
                                    votes[0] += 1;
                                }
                            }

                            else {
                                if (x[16] <= 180.2199935913086) {
                                    votes[3] += 1;
                                }

                                else {
                                    votes[1] += 1;
                                }
                            }
                        }

                        else {
                            if (x[32] <= 11.049999713897705) {
                                if (x[26] <= 11.299999713897705) {
                                    votes[0] += 1;
                                }

                                else {
                                    votes[1] += 1;
                                }
                            }

                            else {
                                if (x[38] <= 24.809999465942383) {
                                    votes[2] += 1;
                                }

                                else {
                                    votes[0] += 1;
                                }
                            }
                        }

                        // tree #51
                        if (x[30] <= 5.680000066757202) {
                            if (x[53] <= 13.829999446868896) {
                                if (x[2] <= 70.5999984741211) {
                                    votes[0] += 1;
                                }

                                else {
                                    votes[3] += 1;
                                }
                            }

                            else {
                                votes[1] += 1;
                            }
                        }

                        else {
                            if (x[39] <= 21.869999885559082) {
                                if (x[47] <= 10.499999523162842) {
                                    votes[2] += 1;
                                }

                                else {
                                    votes[1] += 1;
                                }
                            }

                            else {
                                if (x[58] <= 19.249999046325684) {
                                    votes[2] += 1;
                                }

                                else {
                                    votes[0] += 1;
                                }
                            }
                        }

                        // tree #52
                        if (x[30] <= 5.680000066757202) {
                            if (x[53] <= 4.359999895095825) {
                                if (x[2] <= 37.96999931335449) {
                                    votes[3] += 1;
                                }

                                else {
                                    votes[0] += 1;
                                }
                            }

                            else {
                                votes[3] += 1;
                            }
                        }

                        else {
                            if (x[7] <= 62.58999824523926) {
                                if (x[60] <= 18.589999198913574) {
                                    votes[2] += 1;
                                }

                                else {
                                    votes[0] += 1;
                                }
                            }

                            else {
                                if (x[48] <= 13.460000038146973) {
                                    votes[3] += 1;
                                }

                                else {
                                    votes[1] += 1;
                                }
                            }
                        }

                        // tree #53
                        if (x[57] <= 9.209999561309814) {
                            if (x[1] <= 77.47999572753906) {
                                if (x[62] <= 7.170000076293945) {
                                    votes[0] += 1;
                                }

                                else {
                                    votes[3] += 1;
                                }
                            }

                            else {
                                if (x[23] <= 5.849999904632568) {
                                    votes[0] += 1;
                                }

                                else {
                                    votes[3] += 1;
                                }
                            }
                        }

                        else {
                            if (x[34] <= 24.22000026702881) {
                                if (x[27] <= 21.089999198913574) {
                                    votes[1] += 1;
                                }

                                else {
                                    votes[2] += 1;
                                }
                            }

                            else {
                                if (x[31] <= 32.40999889373779) {
                                    votes[2] += 1;
                                }

                                else {
                                    votes[0] += 1;
                                }
                            }
                        }

                        // tree #54
                        if (x[54] <= 10.53999948501587) {
                            if (x[38] <= 6.169999837875366) {
                                votes[0] += 1;
                            }

                            else {
                                if (x[28] <= 15.980000019073486) {
                                    votes[3] += 1;
                                }

                                else {
                                    votes[0] += 1;
                                }
                            }
                        }

                        else {
                            if (x[33] <= 10.389999866485596) {
                                if (x[20] <= 33.029998779296875) {
                                    votes[0] += 1;
                                }

                                else {
                                    votes[1] += 1;
                                }
                            }

                            else {
                                if (x[32] <= 33.75) {
                                    votes[2] += 1;
                                }

                                else {
                                    votes[0] += 1;
                                }
                            }
                        }

                        // tree #55
                        if (x[30] <= 22.890000343322754) {
                            if (x[52] <= 9.209999561309814) {
                                if (x[13] <= 31.479999542236328) {
                                    votes[0] += 1;
                                }

                                else {
                                    votes[3] += 1;
                                }
                            }

                            else {
                                if (x[1] <= 160.4499969482422) {
                                    votes[1] += 1;
                                }

                                else {
                                    votes[2] += 1;
                                }
                            }
                        }

                        else {
                            if (x[0] <= 133.68999862670898) {
                                if (x[33] <= 32.959999084472656) {
                                    votes[2] += 1;
                                }

                                else {
                                    votes[0] += 1;
                                }
                            }

                            else {
                                if (x[61] <= 16.09999942779541) {
                                    votes[2] += 1;
                                }

                                else {
                                    votes[0] += 1;
                                }
                            }
                        }

                        // tree #56
                        if (x[58] <= 9.889999389648438) {
                            if (x[44] <= 23.969999313354492) {
                                if (x[10] <= 74.40999794006348) {
                                    votes[0] += 1;
                                }

                                else {
                                    votes[3] += 1;
                                }
                            }

                            else {
                                votes[2] += 1;
                            }
                        }

                        else {
                            if (x[51] <= 26.59000015258789) {
                                if (x[26] <= 22.06999969482422) {
                                    votes[1] += 1;
                                }

                                else {
                                    votes[1] += 1;
                                }
                            }

                            else {
                                if (x[33] <= 11.440000057220459) {
                                    votes[0] += 1;
                                }

                                else {
                                    votes[2] += 1;
                                }
                            }
                        }

                        // tree #57
                        if (x[27] <= 21.089999198913574) {
                            if (x[29] <= 6.169999837875366) {
                                if (x[4] <= 149.77999114990234) {
                                    votes[3] += 1;
                                }

                                else {
                                    votes[0] += 1;
                                }
                            }

                            else {
                                if (x[22] <= 9.049999713897705) {
                                    votes[3] += 1;
                                }

                                else {
                                    votes[1] += 1;
                                }
                            }
                        }

                        else {
                            if (x[62] <= 27.649999618530273) {
                                if (x[31] <= 12.71999979019165) {
                                    votes[0] += 1;
                                }

                                else {
                                    votes[2] += 1;
                                }
                            }

                            else {
                                if (x[1] <= 95.74999618530273) {
                                    votes[0] += 1;
                                }

                                else {
                                    votes[1] += 1;
                                }
                            }
                        }

                        // tree #58
                        if (x[57] <= 9.53999948501587) {
                            if (x[21] <= 23.09000015258789) {
                                if (x[30] <= 6.979999780654907) {
                                    votes[3] += 1;
                                }

                                else {
                                    votes[0] += 1;
                                }
                            }

                            else {
                                if (x[29] <= 19.27999973297119) {
                                    votes[1] += 1;
                                }

                                else {
                                    votes[2] += 1;
                                }
                            }
                        }

                        else {
                            if (x[45] <= 28.119999885559082) {
                                if (x[9] <= 16.579999923706055) {
                                    votes[2] += 1;
                                }

                                else {
                                    votes[1] += 1;
                                }
                            }

                            else {
                                if (x[7] <= 45.71999931335449) {
                                    votes[0] += 1;
                                }

                                else {
                                    votes[2] += 1;
                                }
                            }
                        }

                        // tree #59
                        if (x[28] <= 27.199999809265137) {
                            if (x[58] <= 8.819999694824219) {
                                if (x[28] <= 8.819999694824219) {
                                    votes[3] += 1;
                                }

                                else {
                                    votes[0] += 1;
                                }
                            }

                            else {
                                if (x[32] <= 8.399999618530273) {
                                    votes[1] += 1;
                                }

                                else {
                                    votes[1] += 1;
                                }
                            }
                        }

                        else {
                            if (x[53] <= 51.6299991607666) {
                                votes[2] += 1;
                            }

                            else {
                                votes[0] += 1;
                            }
                        }

                        // tree #60
                        if (x[33] <= 21.089999198913574) {
                            if (x[59] <= 8.049999713897705) {
                                if (x[12] <= 54.319997787475586) {
                                    votes[0] += 1;
                                }

                                else {
                                    votes[3] += 1;
                                }
                            }

                            else {
                                if (x[43] <= 40.379998207092285) {
                                    votes[1] += 1;
                                }

                                else {
                                    votes[0] += 1;
                                }
                            }
                        }

                        else {
                            votes[2] += 1;
                        }

                        // tree #61
                        if (x[30] <= 24.59999942779541) {
                            if (x[43] <= 12.769999980926514) {
                                if (x[12] <= 80.01999855041504) {
                                    votes[0] += 1;
                                }

                                else {
                                    votes[3] += 1;
                                }
                            }

                            else {
                                if (x[0] <= 152.08999633789062) {
                                    votes[1] += 1;
                                }

                                else {
                                    votes[2] += 1;
                                }
                            }
                        }

                        else {
                            if (x[39] <= 25.210000038146973) {
                                if (x[2] <= 56.18000030517578) {
                                    votes[3] += 1;
                                }

                                else {
                                    votes[2] += 1;
                                }
                            }

                            else {
                                votes[0] += 1;
                            }
                        }

                        // tree #62
                        if (x[28] <= 21.40999984741211) {
                            if (x[56] <= 11.949999809265137) {
                                if (x[13] <= 112.68000030517578) {
                                    votes[0] += 1;
                                }

                                else {
                                    votes[3] += 1;
                                }
                            }

                            else {
                                if (x[43] <= 25.800000190734863) {
                                    votes[1] += 1;
                                }

                                else {
                                    votes[2] += 1;
                                }
                            }
                        }

                        else {
                            if (x[0] <= 76.67999649047852) {
                                if (x[20] <= 34.619998931884766) {
                                    votes[0] += 1;
                                }

                                else {
                                    votes[1] += 1;
                                }
                            }

                            else {
                                if (x[39] <= 10.209999561309814) {
                                    votes[3] += 1;
                                }

                                else {
                                    votes[2] += 1;
                                }
                            }
                        }

                        // tree #63
                        if (x[4] <= 27.00999927520752) {
                            if (x[61] <= 22.529998779296875) {
                                votes[3] += 1;
                            }

                            else {
                                votes[1] += 1;
                            }
                        }

                        else {
                            if (x[4] <= 185.39999389648438) {
                                if (x[59] <= 8.46999979019165) {
                                    votes[0] += 1;
                                }

                                else {
                                    votes[1] += 1;
                                }
                            }

                            else {
                                votes[2] += 1;
                            }
                        }

                        // tree #64
                        if (x[4] <= 175.74999237060547) {
                            if (x[11] <= 50.93000030517578) {
                                if (x[54] <= 15.12999963760376) {
                                    votes[0] += 1;
                                }

                                else {
                                    votes[2] += 1;
                                }
                            }

                            else {
                                if (x[44] <= 16.969999313354492) {
                                    votes[3] += 1;
                                }

                                else {
                                    votes[1] += 1;
                                }
                            }
                        }

                        else {
                            votes[2] += 1;
                        }

                        // tree #65
                        if (x[57] <= 10.53999948501587) {
                            if (x[10] <= 74.40999794006348) {
                                if (x[16] <= 8.049999713897705) {
                                    votes[3] += 1;
                                }

                                else {
                                    votes[0] += 1;
                                }
                            }

                            else {
                                if (x[24] <= 4.359999895095825) {
                                    votes[2] += 1;
                                }

                                else {
                                    votes[3] += 1;
                                }
                            }
                        }

                        else {
                            if (x[49] <= 19.78999900817871) {
                                if (x[45] <= 3.619999885559082) {
                                    votes[2] += 1;
                                }

                                else {
                                    votes[1] += 1;
                                }
                            }

                            else {
                                if (x[56] <= 20.9399995803833) {
                                    votes[2] += 1;
                                }

                                else {
                                    votes[0] += 1;
                                }
                            }
                        }

                        // tree #66
                        if (x[56] <= 11.429999828338623) {
                            if (x[15] <= 106.75999450683594) {
                                if (x[31] <= 19.089999198913574) {
                                    votes[0] += 1;
                                }

                                else {
                                    votes[2] += 1;
                                }
                            }

                            else {
                                votes[3] += 1;
                            }
                        }

                        else {
                            if (x[31] <= 18.089999198913574) {
                                if (x[45] <= 5.849999904632568) {
                                    votes[3] += 1;
                                }

                                else {
                                    votes[1] += 1;
                                }
                            }

                            else {
                                if (x[9] <= 34.31999969482422) {
                                    votes[0] += 1;
                                }

                                else {
                                    votes[2] += 1;
                                }
                            }
                        }

                        // tree #67
                        if (x[32] <= 18.449999809265137) {
                            if (x[53] <= 9.53999948501587) {
                                if (x[31] <= 5.680000066757202) {
                                    votes[3] += 1;
                                }

                                else {
                                    votes[0] += 1;
                                }
                            }

                            else {
                                if (x[9] <= 53.80999755859375) {
                                    votes[0] += 1;
                                }

                                else {
                                    votes[1] += 1;
                                }
                            }
                        }

                        else {
                            if (x[22] <= 33.05000019073486) {
                                if (x[20] <= 13.249999523162842) {
                                    votes[1] += 1;
                                }

                                else {
                                    votes[2] += 1;
                                }
                            }

                            else {
                                if (x[9] <= 62.78999900817871) {
                                    votes[0] += 1;
                                }

                                else {
                                    votes[2] += 1;
                                }
                            }
                        }

                        // tree #68
                        if (x[28] <= 21.40999984741211) {
                            if (x[57] <= 9.209999561309814) {
                                if (x[4] <= 115.66999816894531) {
                                    votes[0] += 1;
                                }

                                else {
                                    votes[3] += 1;
                                }
                            }

                            else {
                                if (x[7] <= 54.369998931884766) {
                                    votes[3] += 1;
                                }

                                else {
                                    votes[1] += 1;
                                }
                            }
                        }

                        else {
                            if (x[16] <= 91.56999588012695) {
                                if (x[41] <= 24.510000228881836) {
                                    votes[2] += 1;
                                }

                                else {
                                    votes[0] += 1;
                                }
                            }

                            else {
                                if (x[34] <= 5.429999828338623) {
                                    votes[1] += 1;
                                }

                                else {
                                    votes[0] += 1;
                                }
                            }
